-90.000000 0.000001
-89.548872 0.000001
-89.097744 0.000003
-88.646617 0.000004
-88.195489 0.000005
-87.744361 0.000006
-87.293233 0.000007
-86.842105 0.000008
-86.390977 0.000009
-85.939850 0.000010
-85.488722 0.000012
-85.037594 0.000013
-84.586466 0.000014
-84.135338 0.000015
-83.684211 0.000017
-83.233083 0.000018
-82.781955 0.000020
-82.330827 0.000021
-81.879699 0.000023
-81.428571 0.000024
-80.977444 0.000026
-80.526316 0.000028
-80.075188 0.000030
-79.624060 0.000032
-79.172932 0.000034
-78.721805 0.000036
-78.270677 0.000038
-77.819549 0.000040
-77.368421 0.000043
-76.917293 0.000045
-76.466165 0.000047
-76.015038 0.000050
-75.563910 0.000053
-75.112782 0.000055
-74.661654 0.000058
-74.210526 0.000061
-73.759398 0.000064
-73.308271 0.000067
-72.857143 0.000071
-72.406015 0.000074
-71.954887 0.000078
-71.503759 0.000083
-71.052632 0.000087
-70.601504 0.000091
-70.150376 0.000095
-69.699248 0.000100
-69.248120 0.000104
-68.796992 0.000110
-68.345865 0.000115
-67.894737 0.000121
-67.443609 0.000127
-66.992481 0.000133
-66.541353 0.000140
-66.090226 0.000147
-65.639098 0.000155
-65.187970 0.000162
-64.736842 0.000171
-64.285714 0.000180
-63.834586 0.000190
-63.383459 0.000200
-62.932331 0.000210
-62.481203 0.000222
-62.030075 0.000234
-61.578947 0.000246
-61.127820 0.000259
-60.676692 0.000272
-60.225564 0.000286
-59.774436 0.000300
-59.323308 0.000316
-58.872180 0.000333
-58.421053 0.000350
-57.969925 0.000369
-57.518797 0.000388
-57.067669 0.000409
-56.616541 0.000430
-56.165414 0.000453
-55.714286 0.000476
-55.263158 0.000501
-54.812030 0.000526
-54.360902 0.000552
-53.909774 0.000580
-53.458647 0.000611
-53.007519 0.000642
-52.556391 0.000675
-52.105263 0.000710
-51.654135 0.000746
-51.203008 0.000786
-50.751880 0.000828
-50.300752 0.000874
-49.849624 0.000923
-49.398496 0.000978
-48.947368 0.001036
-48.496241 0.001101
-48.045113 0.001171
-47.593985 0.001246
-47.142857 0.001326
-46.691729 0.001412
-46.240602 0.001502
-45.789474 0.001594
-45.338346 0.001693
-44.887218 0.001799
-44.436090 0.001907
-43.984962 0.002020
-43.533835 0.002139
-43.082707 0.002264
-42.631579 0.002393
-42.180451 0.002525
-41.729323 0.002658
-41.278195 0.002794
-40.827068 0.002932
-40.375940 0.003071
-39.924812 0.003207
-39.473684 0.003344
-39.022556 0.003480
-38.571429 0.003616
-38.120301 0.003751
-37.669173 0.003883
-37.218045 0.004016
-36.766917 0.004144
-36.315789 0.004264
-35.864662 0.004377
-35.413534 0.004485
-34.962406 0.004585
-34.511278 0.004677
-34.060150 0.004762
-33.609023 0.004838
-33.157895 0.004908
-32.706767 0.004971
-32.255639 0.005025
-31.804511 0.005072
-31.353383 0.005112
-30.902256 0.005146
-30.451128 0.005176
-30.000000 0.005200
-29.548872 0.005220
-29.097744 0.005237
-28.646617 0.005251
-28.195489 0.005260
-27.744361 0.005266
-27.293233 0.005268
-26.842105 0.005268
-26.390977 0.005265
-25.939850 0.005261
-25.488722 0.005255
-25.037594 0.005248
-24.586466 0.005239
-24.135338 0.005230
-23.684211 0.005221
-23.233083 0.005213
-22.781955 0.005203
-22.330827 0.005192
-21.879699 0.005180
-21.428571 0.005168
-20.977444 0.005159
-20.526316 0.005148
-20.075188 0.005136
-19.624060 0.005124
-19.172932 0.005112
-18.721805 0.005099
-18.270677 0.005085
-17.819549 0.005071
-17.368421 0.005057
-16.917293 0.005042
-16.466165 0.005028
-16.015038 0.005014
-15.563910 0.005000
-15.112782 0.004986
-14.661654 0.004972
-14.210526 0.004959
-13.759398 0.004944
-13.308271 0.004928
-12.857143 0.004913
-12.406015 0.004899
-11.954887 0.004885
-11.503759 0.004871
-11.052632 0.004857
-10.601504 0.004845
-10.150376 0.004833
-9.699248 0.004821
-9.248120 0.004810
-8.796992 0.004799
-8.345865 0.004789
-7.894737 0.004779
-7.443609 0.004770
-6.992481 0.004761
-6.541353 0.004752
-6.090226 0.004745
-5.639098 0.004737
-5.187970 0.004730
-4.736842 0.004723
-4.285714 0.004717
-3.834586 0.004711
-3.383459 0.004705
-2.932331 0.004700
-2.481203 0.004694
-2.030075 0.004690
-1.578947 0.004686
-1.127820 0.004681
-0.676692 0.004678
-0.225564 0.004675
0.225564 0.004673
0.676692 0.004671
1.127820 0.004670
1.578947 0.004669
2.030075 0.004668
2.481203 0.004667
2.932331 0.004667
3.383459 0.004667
3.834586 0.004668
4.285714 0.004669
4.736842 0.004671
5.187970 0.004673
5.639098 0.004675
6.090226 0.004679
6.541353 0.004683
6.992481 0.004687
7.443609 0.004691
7.894737 0.004694
8.345865 0.004697
8.796992 0.004700
9.248120 0.004703
9.699248 0.004708
10.150376 0.004714
10.601504 0.004720
11.052632 0.004727
11.503759 0.004735
11.954887 0.004745
12.406015 0.004755
12.857143 0.004765
13.308271 0.004776
13.759398 0.004788
14.210526 0.004799
14.661654 0.004811
15.112782 0.004823
15.563910 0.004837
16.015038 0.004850
16.466165 0.004863
16.917293 0.004877
17.368421 0.004890
17.819549 0.004904
18.270677 0.004918
18.721805 0.004934
19.172932 0.004949
19.624060 0.004965
20.075188 0.004980
20.526316 0.004995
20.977444 0.005010
21.428571 0.005025
21.879699 0.005040
22.330827 0.005054
22.781955 0.005067
23.233083 0.005080
23.684211 0.005093
24.135338 0.005105
24.586466 0.005118
25.037594 0.005129
25.488722 0.005140
25.939850 0.005150
26.390977 0.005161
26.842105 0.005171
27.293233 0.005179
27.744361 0.005187
28.195489 0.005194
28.646617 0.005201
29.097744 0.005205
29.548872 0.005208
30.000000 0.005208
30.451128 0.005206
30.902256 0.005201
31.353383 0.005192
31.804511 0.005180
32.255639 0.005165
32.706767 0.005146
33.157895 0.005122
33.609023 0.005094
34.060150 0.005061
34.511278 0.005023
34.962406 0.004981
35.413534 0.004932
35.864662 0.004876
36.315789 0.004812
36.766917 0.004742
37.218045 0.004667
37.669173 0.004585
38.120301 0.004497
38.571429 0.004402
39.022556 0.004301
39.473684 0.004193
39.924812 0.004079
40.375940 0.003959
40.827068 0.003834
41.278195 0.003705
41.729323 0.003573
42.180451 0.003439
42.631579 0.003304
43.082707 0.003168
43.533835 0.003030
43.984962 0.002896
44.436090 0.002761
44.887218 0.002625
45.338346 0.002493
45.789474 0.002365
46.240602 0.002238
46.691729 0.002113
47.142857 0.001991
47.593985 0.001874
48.045113 0.001764
48.496241 0.001659
48.947368 0.001558
49.398496 0.001463
49.849624 0.001372
50.300752 0.001286
50.751880 0.001205
51.203008 0.001127
51.654135 0.001052
52.105263 0.000982
52.556391 0.000916
53.007519 0.000855
53.458647 0.000802
53.909774 0.000754
54.360902 0.000708
54.812030 0.000665
55.263158 0.000627
55.714286 0.000592
56.165414 0.000560
56.616541 0.000530
57.067669 0.000501
57.518797 0.000474
57.969925 0.000450
58.421053 0.000427
58.872180 0.000404
59.323308 0.000382
59.774436 0.000361
60.225564 0.000341
60.676692 0.000322
61.127820 0.000303
61.578947 0.000286
62.030075 0.000270
62.481203 0.000255
62.932331 0.000241
63.383459 0.000227
63.834586 0.000213
64.285714 0.000201
64.736842 0.000189
65.187970 0.000179
65.639098 0.000168
66.090226 0.000158
66.541353 0.000148
66.992481 0.000139
67.443609 0.000131
67.894737 0.000122
68.345865 0.000114
68.796992 0.000106
69.248120 0.000098
69.699248 0.000091
70.150376 0.000085
70.601504 0.000079
71.052632 0.000074
71.503759 0.000069
71.954887 0.000065
72.406015 0.000061
72.857143 0.000057
73.308271 0.000053
73.759398 0.000050
74.210526 0.000047
74.661654 0.000044
75.112782 0.000041
75.563910 0.000038
76.015038 0.000036
76.466165 0.000034
76.917293 0.000032
77.368421 0.000030
77.819549 0.000027
78.270677 0.000025
78.721805 0.000023
79.172932 0.000021
79.624060 0.000019
80.075188 0.000018
80.526316 0.000016
80.977444 0.000014
81.428571 0.000013
81.879699 0.000011
82.330827 0.000010
82.781955 0.000009
83.233083 0.000008
83.684211 0.000007
84.135338 0.000006
84.586466 0.000006
85.037594 0.000005
85.488722 0.000004
85.939850 0.000004
86.390977 0.000003
86.842105 0.000003
87.293233 0.000003
87.744361 0.000002
88.195489 0.000002
88.646617 0.000001
89.097744 0.000001
89.548872 0.000001
90.000000 0.000000
